digraph Tree {
node [shape=box] ;
0 [label="Gender <= 0.5\ngini = 0.473\nsamples = 891\nvalue = [549, 342]\nclass = Perish"] ;
1 [label="Age_mean <= 6.5\ngini = 0.306\nsamples = 577\nvalue = [468, 109]\nclass = Perish"] ;
0 -> 1 [labeldistance=2.5, labelangle=45, headlabel="True"] ;
2 [label="Family_L <= 0.5\ngini = 0.444\nsamples = 24\nvalue = [8, 16]\nclass = Survived"] ;
1 -> 2 ;
3 [label="gini = 0.0\nsamples = 15\nvalue = [0, 15]\nclass = Survived"] ;
2 -> 3 ;
4 [label="Age_mean <= 2.5\ngini = 0.198\nsamples = 9\nvalue = [8, 1]\nclass = Perish"] ;
2 -> 4 ;
5 [label="gini = 0.0\nsamples = 5\nvalue = [5, 0]\nclass = Perish"] ;
4 -> 5 ;
6 [label="Age_mean <= 3.5\ngini = 0.375\nsamples = 4\nvalue = [3, 1]\nclass = Perish"] ;
4 -> 6 ;
7 [label="gini = 0.0\nsamples = 1\nvalue = [0, 1]\nclass = Survived"] ;
6 -> 7 ;
8 [label="gini = 0.0\nsamples = 3\nvalue = [3, 0]\nclass = Perish"] ;
6 -> 8 ;
9 [label="Pclass_1 <= 0.5\ngini = 0.28\nsamples = 553\nvalue = [460, 93]\nclass = Perish"] ;
1 -> 9 ;
10 [label="Fare_High <= 0.5\ngini = 0.204\nsamples = 433\nvalue = [383, 50]\nclass = Perish"] ;
9 -> 10 ;
11 [label="Age_mean <= 13.0\ngini = 0.193\nsamples = 417\nvalue = [372, 45]\nclass = Perish"] ;
10 -> 11 ;
12 [label="Family_M <= 0.5\ngini = 0.444\nsamples = 12\nvalue = [8, 4]\nclass = Perish"] ;
11 -> 12 ;
13 [label="gini = 0.0\nsamples = 8\nvalue = [8, 0]\nclass = Perish"] ;
12 -> 13 ;
14 [label="gini = 0.0\nsamples = 4\nvalue = [0, 4]\nclass = Survived"] ;
12 -> 14 ;
15 [label="Embarked_C <= 0.5\ngini = 0.182\nsamples = 405\nvalue = [364, 41]\nclass = Perish"] ;
11 -> 15 ;
16 [label="Fare_Medium <= 0.5\ngini = 0.164\nsamples = 356\nvalue = [324, 32]\nclass = Perish"] ;
15 -> 16 ;
17 [label="gini = 0.185\nsamples = 233\nvalue = [209, 24]\nclass = Perish"] ;
16 -> 17 ;
18 [label="gini = 0.122\nsamples = 123\nvalue = [115, 8]\nclass = Perish"] ;
16 -> 18 ;
19 [label="Age_mean <= 29.5\ngini = 0.3\nsamples = 49\nvalue = [40, 9]\nclass = Perish"] ;
15 -> 19 ;
20 [label="gini = 0.368\nsamples = 37\nvalue = [28, 9]\nclass = Perish"] ;
19 -> 20 ;
21 [label="gini = 0.0\nsamples = 12\nvalue = [12, 0]\nclass = Perish"] ;
19 -> 21 ;
22 [label="Family_S <= 0.5\ngini = 0.43\nsamples = 16\nvalue = [11, 5]\nclass = Perish"] ;
10 -> 22 ;
23 [label="gini = 0.0\nsamples = 7\nvalue = [7, 0]\nclass = Perish"] ;
22 -> 23 ;
24 [label="Pclass_3 <= 0.5\ngini = 0.494\nsamples = 9\nvalue = [4, 5]\nclass = Survived"] ;
22 -> 24 ;
25 [label="gini = 0.0\nsamples = 2\nvalue = [2, 0]\nclass = Perish"] ;
24 -> 25 ;
26 [label="Age_mean <= 30.0\ngini = 0.408\nsamples = 7\nvalue = [2, 5]\nclass = Survived"] ;
24 -> 26 ;
27 [label="gini = 0.48\nsamples = 5\nvalue = [2, 3]\nclass = Survived"] ;
26 -> 27 ;
28 [label="gini = 0.0\nsamples = 2\nvalue = [0, 2]\nclass = Survived"] ;
26 -> 28 ;
29 [label="Age_mean <= 53.0\ngini = 0.46\nsamples = 120\nvalue = [77, 43]\nclass = Perish"] ;
9 -> 29 ;
30 [label="Fare_Low <= 0.5\ngini = 0.483\nsamples = 98\nvalue = [58, 40]\nclass = Perish"] ;
29 -> 30 ;
31 [label="Age_mean <= 17.5\ngini = 0.491\nsamples = 92\nvalue = [52, 40]\nclass = Perish"] ;
30 -> 31 ;
32 [label="gini = 0.0\nsamples = 2\nvalue = [0, 2]\nclass = Survived"] ;
31 -> 32 ;
33 [label="Age_mean <= 22.5\ngini = 0.488\nsamples = 90\nvalue = [52, 38]\nclass = Perish"] ;
31 -> 33 ;
34 [label="gini = 0.0\nsamples = 5\nvalue = [5, 0]\nclass = Perish"] ;
33 -> 34 ;
35 [label="gini = 0.494\nsamples = 85\nvalue = [47, 38]\nclass = Perish"] ;
33 -> 35 ;
36 [label="gini = 0.0\nsamples = 6\nvalue = [6, 0]\nclass = Perish"] ;
30 -> 36 ;
37 [label="Age_mean <= 75.5\ngini = 0.236\nsamples = 22\nvalue = [19, 3]\nclass = Perish"] ;
29 -> 37 ;
38 [label="Embarked_S <= 0.5\ngini = 0.172\nsamples = 21\nvalue = [19, 2]\nclass = Perish"] ;
37 -> 38 ;
39 [label="Age_mean <= 62.5\ngini = 0.375\nsamples = 8\nvalue = [6, 2]\nclass = Perish"] ;
38 -> 39 ;
40 [label="gini = 0.48\nsamples = 5\nvalue = [3, 2]\nclass = Perish"] ;
39 -> 40 ;
41 [label="gini = 0.0\nsamples = 3\nvalue = [3, 0]\nclass = Perish"] ;
39 -> 41 ;
42 [label="gini = 0.0\nsamples = 13\nvalue = [13, 0]\nclass = Perish"] ;
38 -> 42 ;
43 [label="gini = 0.0\nsamples = 1\nvalue = [0, 1]\nclass = Survived"] ;
37 -> 43 ;
44 [label="Pclass_3 <= 0.5\ngini = 0.383\nsamples = 314\nvalue = [81, 233]\nclass = Survived"] ;
0 -> 44 [labeldistance=2.5, labelangle=-45, headlabel="False"] ;
45 [label="Age_mean <= 2.5\ngini = 0.1\nsamples = 170\nvalue = [9, 161]\nclass = Survived"] ;
44 -> 45 ;
46 [label="Fare_Medium <= 0.5\ngini = 0.5\nsamples = 2\nvalue = [1, 1]\nclass = Perish"] ;
45 -> 46 ;
47 [label="gini = 0.0\nsamples = 1\nvalue = [1, 0]\nclass = Perish"] ;
46 -> 47 ;
48 [label="gini = 0.0\nsamples = 1\nvalue = [0, 1]\nclass = Survived"] ;
46 -> 48 ;
49 [label="Fare_High <= 0.5\ngini = 0.091\nsamples = 168\nvalue = [8, 160]\nclass = Survived"] ;
45 -> 49 ;
50 [label="Age_mean <= 56.0\ngini = 0.151\nsamples = 85\nvalue = [7, 78]\nclass = Survived"] ;
49 -> 50 ;
51 [label="Age_mean <= 23.5\ngini = 0.134\nsamples = 83\nvalue = [6, 77]\nclass = Survived"] ;
50 -> 51 ;
52 [label="gini = 0.0\nsamples = 23\nvalue = [0, 23]\nclass = Survived"] ;
51 -> 52 ;
53 [label="Age_mean <= 27.5\ngini = 0.18\nsamples = 60\nvalue = [6, 54]\nclass = Survived"] ;
51 -> 53 ;
54 [label="gini = 0.355\nsamples = 13\nvalue = [3, 10]\nclass = Survived"] ;
53 -> 54 ;
55 [label="gini = 0.12\nsamples = 47\nvalue = [3, 44]\nclass = Survived"] ;
53 -> 55 ;
56 [label="Title_Mrs <= 0.5\ngini = 0.5\nsamples = 2\nvalue = [1, 1]\nclass = Perish"] ;
50 -> 56 ;
57 [label="gini = 0.0\nsamples = 1\nvalue = [0, 1]\nclass = Survived"] ;
56 -> 57 ;
58 [label="gini = 0.0\nsamples = 1\nvalue = [1, 0]\nclass = Perish"] ;
56 -> 58 ;
59 [label="Age_mean <= 25.5\ngini = 0.024\nsamples = 83\nvalue = [1, 82]\nclass = Survived"] ;
49 -> 59 ;
60 [label="Age_mean <= 24.5\ngini = 0.083\nsamples = 23\nvalue = [1, 22]\nclass = Survived"] ;
59 -> 60 ;
61 [label="gini = 0.0\nsamples = 22\nvalue = [0, 22]\nclass = Survived"] ;
60 -> 61 ;
62 [label="gini = 0.0\nsamples = 1\nvalue = [1, 0]\nclass = Perish"] ;
60 -> 62 ;
63 [label="gini = 0.0\nsamples = 60\nvalue = [0, 60]\nclass = Survived"] ;
59 -> 63 ;
64 [label="Family_L <= 0.5\ngini = 0.5\nsamples = 144\nvalue = [72, 72]\nclass = Perish"] ;
44 -> 64 ;
65 [label="Age_mean <= 36.5\ngini = 0.484\nsamples = 117\nvalue = [48, 69]\nclass = Survived"] ;
64 -> 65 ;
66 [label="Embarked_S <= 0.5\ngini = 0.472\nsamples = 110\nvalue = [42, 68]\nclass = Survived"] ;
65 -> 66 ;
67 [label="Age_mean <= 29.75\ngini = 0.401\nsamples = 54\nvalue = [15, 39]\nclass = Survived"] ;
66 -> 67 ;
68 [label="Age_mean <= 7.0\ngini = 0.375\nsamples = 52\nvalue = [13, 39]\nclass = Survived"] ;
67 -> 68 ;
69 [label="gini = 0.0\nsamples = 5\nvalue = [0, 5]\nclass = Survived"] ;
68 -> 69 ;
70 [label="gini = 0.4\nsamples = 47\nvalue = [13, 34]\nclass = Survived"] ;
68 -> 70 ;
71 [label="gini = 0.0\nsamples = 2\nvalue = [2, 0]\nclass = Perish"] ;
67 -> 71 ;
72 [label="Age_mean <= 32.0\ngini = 0.499\nsamples = 56\nvalue = [27, 29]\nclass = Survived"] ;
66 -> 72 ;
73 [label="Age_mean <= 7.5\ngini = 0.5\nsamples = 53\nvalue = [27, 26]\nclass = Perish"] ;
72 -> 73 ;
74 [label="gini = 0.278\nsamples = 6\nvalue = [1, 5]\nclass = Survived"] ;
73 -> 74 ;
75 [label="gini = 0.494\nsamples = 47\nvalue = [26, 21]\nclass = Perish"] ;
73 -> 75 ;
76 [label="gini = 0.0\nsamples = 3\nvalue = [0, 3]\nclass = Survived"] ;
72 -> 76 ;
77 [label="Age_mean <= 55.0\ngini = 0.245\nsamples = 7\nvalue = [6, 1]\nclass = Perish"] ;
65 -> 77 ;
78 [label="gini = 0.0\nsamples = 6\nvalue = [6, 0]\nclass = Perish"] ;
77 -> 78 ;
79 [label="gini = 0.0\nsamples = 1\nvalue = [0, 1]\nclass = Survived"] ;
77 -> 79 ;
80 [label="Fare_Low <= 0.5\ngini = 0.198\nsamples = 27\nvalue = [24, 3]\nclass = Perish"] ;
64 -> 80 ;
81 [label="Age_mean <= 5.5\ngini = 0.142\nsamples = 26\nvalue = [24, 2]\nclass = Perish"] ;
80 -> 81 ;
82 [label="Age_mean <= 4.0\ngini = 0.375\nsamples = 4\nvalue = [3, 1]\nclass = Perish"] ;
81 -> 82 ;
83 [label="gini = 0.0\nsamples = 3\nvalue = [3, 0]\nclass = Perish"] ;
82 -> 83 ;
84 [label="gini = 0.0\nsamples = 1\nvalue = [0, 1]\nclass = Survived"] ;
82 -> 84 ;
85 [label="Age_mean <= 33.5\ngini = 0.087\nsamples = 22\nvalue = [21, 1]\nclass = Perish"] ;
81 -> 85 ;
86 [label="gini = 0.0\nsamples = 15\nvalue = [15, 0]\nclass = Perish"] ;
85 -> 86 ;
87 [label="Age_mean <= 38.5\ngini = 0.245\nsamples = 7\nvalue = [6, 1]\nclass = Perish"] ;
85 -> 87 ;
88 [label="gini = 0.0\nsamples = 1\nvalue = [0, 1]\nclass = Survived"] ;
87 -> 88 ;
89 [label="gini = 0.0\nsamples = 6\nvalue = [6, 0]\nclass = Perish"] ;
87 -> 89 ;
90 [label="gini = 0.0\nsamples = 1\nvalue = [0, 1]\nclass = Survived"] ;
80 -> 90 ;
}